{
  "num_of_input_neurons": 6,
  "num_of_output_neurons": 1,
  "num_of_hidden_layers": 4,
  "num_of_hidden_neurons_per_layer": [
    5,
    4,
    3,
    2
  ],
  "weights": [
    {
      "rows": 5,
      "columns": 6,
      "values": [
        [
          -61.32035364191124,
          -47.911569339187416,
          -85.02537107295,
          -66.97310242221766,
          103.23535781782718,
          1.713276908633072
        ],
        [
          -35.75369031357791,
          -12.291443004538884,
          53.17437291079636,
          -22.81388019279654,
          31.040407702057614,
          -35.33168963101449
        ],
        [
          -11.428362905190678,
          -143.56891332362596,
          142.95453195838638,
          -146.40878226285392,
          40.44419155806928,
          -7.902133276580752
        ],
        [
          -54.08502917869228,
          126.65704856661975,
          -51.68679344589674,
          -22.246745606034974,
          -5.37416470907877,
          30.080436626499104
        ],
        [
          85.59005699979248,
          39.167129159610504,
          -48.72858962971993,
          -14.033362690978118,
          -0.8821248070988374,
          11.915926012148997
        ]
      ]
    },
    {
      "rows": 4,
      "columns": 5,
      "values": [
        [
          28.58939493389441,
          18.928260394076652,
          2.8047110234744257,
          8.825314941142059,
          -16.95829635914116
        ],
        [
          4.1912224586193645,
          -2.1238959430537037,
          0.5757688446946668,
          -15.136817375579787,
          19.929425750507015
        ],
        [
          1.5298528585629727,
          0.6100967986274315,
          0.6819176100757665,
          2.3736295285888067,
          4.67501935935865
        ],
        [
          11.819741372464486,
          1.5133139521182508,
          20.197196624779057,
          -10.149448921635225,
          -13.047694484953112
        ]
      ]
    },
    {
      "rows": 3,
      "columns": 4,
      "values": [
        [
          -2.698871844272934,
          7.744468963084201,
          -1.56043873683328,
          -1.2638027382384989
        ],
        [
          -5.503718706117575,
          3.9385461610050125,
          2.2177841139102585,
          -4.086641086933134
        ],
        [
          -5.110267379701338,
          2.9552123922717866,
          -1.8899396779805422,
          -3.237686498636585
        ]
      ]
    },
    {
      "rows": 2,
      "columns": 3,
      "values": [
        [
          -1.1356497340564886,
          -2.7400972233706957,
          -1.0057091301830001
        ],
        [
          2.437697565023233,
          2.739721024637336,
          2.896691676360907
        ]
      ]
    },
    {
      "rows": 1,
      "columns": 2,
      "values": [
        [
          -1.4199277842223246,
          2.3532699937001333
        ]
      ]
    }
  ],
  "biases": [
    {
      "rows": 5,
      "columns": 1,
      "values": [
        [
          129.19890305614578
        ],
        [
          -11.261996149292697
        ],
        [
          52.33235851256558
        ],
        [
          30.290863415405887
        ],
        [
          8.578486898124076
        ]
      ]
    },
    {
      "rows": 4,
      "columns": 1,
      "values": [
        [
          -3.5973296135287067
        ],
        [
          -21.12831134815382
        ],
        [
          0.5303385645592043
        ],
        [
          0.3588844764730992
        ]
      ]
    },
    {
      "rows": 3,
      "columns": 1,
      "values": [
        [
          -2.93662232987665
        ],
        [
          2.0595554656558144
        ],
        [
          -3.007900467651957
        ]
      ]
    },
    {
      "rows": 2,
      "columns": 1,
      "values": [
        [
          0.5815497202878144
        ],
        [
          -2.0471299518451023
        ]
      ]
    },
    {
      "rows": 1,
      "columns": 1,
      "values": [
        [
          1.657422431198471
        ]
      ]
    }
  ],
  "learning_rate": 0.02564102564102564
}